{"input_weights": [[0.2709781993901729, 1.101165093953271, -0.7585041173859453, 0.6980813760823941, 0.6240503684200522, -0.44654939641522884, 0.1699233599412927, 0.041823972033420614, -0.21512094175689506, 0.9311407856509232], [0.45168077560479114, 0.4978948086708047, -0.24402367788532256, 0.4822754484101885, -0.6444622926507786, 0.5280527571936758, -0.39987693728940704, -0.3597814600571748, -0.06945895820273638, 0.9153090444244912], [-0.0363349786653723, -0.8213735382168491, -0.5004165691544925, 0.48481700514775916, 0.9362866382304489, -0.2280005668489577, -0.047696020134234185, -0.5666264215614919, 0.951760326399182, 0.9758983304170463]], "output_weights": [[-0.1711305589597462, -0.26519466159145644], [-1.2967428581300748, 0.13078049614164328], [-0.38784871985672226, 0.6458827302515099], [0.8136222280565065, -0.4924848066331259], [0.10667518128846055, -0.8725639598324006], [-0.22834667500631162, 0.8515058876289616], [-0.9207436665798114, 0.5995693992059168], [-0.7715718889110178, -0.7111634710474067], [0.24494054519775027, -0.7093822605872248], [-0.37184369960292607, -0.5071955490246768]]}