{"input_weights": [[0.3386215055484354, 0.2046223800210454, -0.0383937286931236, 0.9169785631256618, 0.8748104792843403, 0.3663348074059804, 0.1819893796481644, 1.355332584297832, -0.06923333325015604, 0.285530406852302], [-0.45230551101821487, 0.6732075836984702, 0.6806259694369353, -0.47363918490993595, 0.11753353693459162, 0.2856367965541164, 0.09717666759091313, 0.4459635406946847, 0.15724017423196948, -0.2206474261879356], [0.9389677759771824, -0.3036786615797449, 0.8854888522784119, 0.8027446047615219, -0.6572162080330007, -0.5014777976520917, 0.4863556951485235, 0.2074843198779133, -0.8536580117639562, -0.19824644598347102]], "output_weights": [[-0.10659795596246599, -0.7459473429821186], [-0.18572074888714918, -0.11266904874100885], [0.9146830327883718, -1.0512392196536646], [0.607288895215865, -0.8358183954049941], [0.19024346638766754, -0.2145156096712788], [0.6530324619514182, -0.4803139399318845], [0.08217699323019532, 0.5016156429958225], [-1.3429613042640158, -0.6001194407776737], [-0.6713184814124277, 0.49863006404116156], [-0.7464885182947737, 0.5580244295215415]]}